solver_type L2R_L2LOSS_SVC_DUAL
nr_class 2
label 1 -1
nr_feature 123
bias -1
w
-0.1154473790403622 
0.009255535898814638 
0.06896206013302267 
0.1352949830380839 
0.1621265611998035 
0.1091099976502766 
-0.02237293346092163 
0.004510992480980504 
0.08057230373198904 
-0.01033154419324308 
-0.006035917053557927 
-0.3375502903606538 
0.08673058707646181 
0.01560871692084461 
0.0980094324921038 
0.05008236516860103 
0.02845484593330867 
0.06803640071455067 
0.02471740709760207 
0.06690989851015988 
0.1001820423550069 
0.04077067168742828 
0.1346077926123429 
0.0815932084267213 
0.09824505654090357 
0.0697868171884836 
0.0522936268943042 
0.220126805310648 
0.06423046853319253 
0.1048372220342211 
0.12502071629761 
0.2930271014733213 
0.0601774464670715 
-0.3222980623584393 
-0.1969874953463927 
0.04077067168742828 
0.06690989851015988 
0.09310767789115154 
0.2563910084870516 
0.3092020294175258 
-0.09360194803297137 
-0.08623278496297915 
-0.08787739115782751 
0.01026957169437048 
-0.0121474082943601 
0.3940408667186459 
0.1229932388232573 
0.05968838173706448 
0.003885893839761253 
0.07328548842053326 
0.1602770089078362 
0.1508983782647833 
-0.09916580874387476 
-0.02526060890181557 
0.1012459059709193 
-0.1291226648597815 
0.05216123416521029 
-0.1572705352633661 
0.1862074458360451 
-0.07480663986648098 
0.2072348240411547 
0.006098014106495187 
0.01136741036546626 
0.04025579467586325 
0.02601725645608284 
0.0559490486608032 
0.07609336474234736 
0.1642814051726411 
-0.02062785298070245 
0.02101148868027133 
0.01943335561484173 
-0.02182024770256505 
0.02182024770256505 
-0.1366585656240931 
0.1366585656240931 
-0.1059466970418956 
0.1059466970418956 
-0.07576322881054953 
0.05324334794466372 
0.02481309328660897 
0.1370652453771221 
0.1208333034315519 
0.08021677625038572 
0.1002176992315151 
0.08749077157520352 
-0.02503122324670753 
-0.04098957407701048 
0.06565575746934979 
-0.1853709604964845 
-0.1496928447946129 
0.08060177325210535 
-0.005288066068908514 
-0.1770393299988111 
-0.1739112071909294 
0.03297774663189738 
0.02401526346921635 
-0.09508573473725487 
0.06139040734090584 
0.1505054442533839 
0.0729527984121742 
0.01286909304021879 
-0.1951575494837723 
-0.0832831547638645 
-0.1100660276870649 
0.09424419645885573 
0.1490140466648014 
-0.1576620234878788 
-0.2204970950450627 
-0.1016966711584467 
-0.01066099829593499 
-0.03405256854545427 
-0.3528766147248307 
-0.04584522958659647 
0.05335191393427241 
-0.03347639871264342 
0.01471753405607767 
-0.2916305526977581 
0.1968962101816236 
-0.02536090227528038 
-0.02645705094251414 
-0.3954998088796463 
-0.1528829156999755 
0.08673058707646278 
